digraph Tree {
node [shape=box] ;
0 [label="Petal.Length <= 2.6\nentropy = 1.583\nsamples = 109\nvalue = [37, 34, 38]"] ;
1 [label="entropy = 0.0\nsamples = 37\nvalue = [37, 0, 0]"] ;
0 -> 1 [labeldistance=2.5, labelangle=45, headlabel="True"] ;
2 [label="Petal.Width <= 1.75\nentropy = 0.998\nsamples = 72\nvalue = [0, 34, 38]"] ;
0 -> 2 [labeldistance=2.5, labelangle=-45, headlabel="False"] ;
3 [label="Petal.Length <= 5.05\nentropy = 0.414\nsamples = 36\nvalue = [0, 33, 3]"] ;
2 -> 3 ;
4 [label="Sepal.Length <= 4.95\nentropy = 0.196\nsamples = 33\nvalue = [0, 32, 1]"] ;
3 -> 4 ;
5 [label="entropy = 1.0\nsamples = 2\nvalue = [0, 1, 1]"] ;
4 -> 5 ;
6 [label="entropy = 0.0\nsamples = 31\nvalue = [0, 31, 0]"] ;
4 -> 6 ;
7 [label="entropy = 0.918\nsamples = 3\nvalue = [0, 1, 2]"] ;
3 -> 7 ;
8 [label="Petal.Length <= 4.85\nentropy = 0.183\nsamples = 36\nvalue = [0, 1, 35]"] ;
2 -> 8 ;
9 [label="entropy = 1.0\nsamples = 2\nvalue = [0, 1, 1]"] ;
8 -> 9 ;
10 [label="entropy = 0.0\nsamples = 34\nvalue = [0, 0, 34]"] ;
8 -> 10 ;
}